metal -0.518883815073 -0.158119211162 0.207871072221 0.0189522424712 0.211198693534 -0.314301854732 0.357451611381 -0.68835653695 -0.106182170463 0.274981284287 -0.140354317073 0.280555719708 -0.201162181968 -0.0351210586518 0.287171470274 0.143070474453 -0.139390376796 -0.46242995645 0.357893810642 0.11882424817 -0.058596926187 -0.106926163602 -0.0297654075888 -0.224777453175 -0.0453755755774 -0.189420340558 -0.141248444641 -0.359149349136 -0.00997615602686 0.18532748468 0.0284780133616 -0.248395144038 0.0640789477751 0.296673994119 0.912457035602 -0.0350889833773 -0.289085092638 0.183123020839 0.0753133632065 0.582306201031 0.104700041056 0.139380314308 0.251658185241 0.0639979116971 0.30539986716 -0.00758616929572 0.294313979958 -0.332447798848 0.0444471228578 -0.276389319482
stick -0.262658768785 -0.306569486025 -0.0201818165716 0.176487564119 0.0204003195651 0.246867548715 0.179849454594 -0.213392490967 -0.373488031098 -0.0979203515193 -0.15579721083 0.337984533645 0.0570654579335 0.0458373735095 0.257588427566 -0.136237427 -0.0137720670199 -0.125043727564 0.229255059406 0.0324189211895 -0.0400084668638 -0.0657549953162 -0.00515304937481 0.210687898259 0.281376198161 -0.0704117812713 -0.356734667611 0.239970220534 -0.144267135056 0.0162562159521 0.142517483565 -0.509845480144 -0.716807474272 0.637406520697 0.320571867131 -0.0225440104745 0.189793756126 -0.328111349273 0.111438656887 0.694511476055 0.200742406293 -0.159855675954 0.149936351685 0.258739700713 0.0861682968891 0.11013590222 -0.220486498134 0.211811998287 -0.0422842820447 -0.377975408888
ore -0.428998423568 0.014119311362 0.00881340011167 0.0994688543317 0.070994255502 -0.0749495213049 0.234992532891 -0.280969393017 0.0241992715794 -0.142784164685 -0.175518003993 0.179115421892 -0.0080935258659 -0.0513718956716 0.0726987377396 0.304320902574 -0.0128868536879 -0.550024044779 -0.170627322116 0.0192108151546 -0.268753030293 -0.215278152116 -0.441389750515 -0.0180562520756 0.390303003675 0.16045690106 -0.0162364759761 -0.277234320781 0.293409912436 0.307196516196 -0.0524995589054 -0.495065648847 0.0611250029198 0.185313884832 0.44986385684 -0.174049771835 -0.349681126381 0.151704451608 0.125062549102 0.407147719074 -0.0160489167465 -0.0680636371749 0.0739680816552 -0.226776936828 0.246656845558 0.161220455125 0.132496491131 -0.336607232666 0.130574769008 0.245322569142
wood -0.492804669016 -0.171773615509 0.133101633399 -0.14639056483 0.207007662219 -0.261922420876 0.0885701575817 -0.554970046733 -0.379152957717 0.136515886715 -0.0973554014521 0.305048854071 -0.151624353145 -0.164533573555 0.210299409903 -0.00308697407747 -0.587669149222 -0.423047727289 0.184842408462 -0.0769979615565 -0.406743552769 -0.427780873912 0.155874609746 -0.312988078223 0.0897906053697 0.228899517467 0.0205086543905 -0.0698944519154 0.244847133539 0.272862928449 0.0862423433942 -0.162867314918 0.0328024719868 0.17142714589 0.208936860139 0.0864337290995 -0.483855733065 -0.164949970291 0.221809617183 0.0692639181995 0.0492623653822 0.0698908992445 0.289200103911 -0.196696398195 0.0787936201972 -0.0344299242168 0.18322058194 -0.190816980419 0.00639468729576 0.175681414491
stone -0.340721727715 0.0772485882933 0.1469599155 0.128136818547 -0.0429228399381 -0.33779767123 0.0716296832784 -0.41486816336 -0.177782961048 0.0557580780391 -0.219567979949 0.428163046873 -0.044085510073 0.0528194477657 0.394042934498 -0.0454133477003 -0.37313762714 -0.17449094661 0.0768805746163 0.165193218021 -0.0644938931672 -0.346181418678 0.29036489178 -0.089631997768 0.0200750513214 -0.204952048543 0.269036523429 -0.186577785317 0.215633892545 0.211100046452 -0.0620335426058 -0.275797764332 -0.22008027729 0.370317224023 0.135742819553 -0.192333933066 -0.0280553502155 0.0454141632186 0.0661053191295 0.354772220892 0.365325837391 0.190695805884 0.505555741585 0.11400500733 -0.0380505431511 -0.320795803954 -0.102697258526 0.0395595645454 -0.421319047763 -0.0821754789293
craft -0.111671498051 0.00286515609803 0.191151925017 0.138132400221 0.0467414392467 -0.300360025196 -0.0266396534662 -0.585788063603 -0.0811056063067 -0.0948240823345 0.0431013589063 0.375296610462 -0.282906007222 -0.0252628494931 0.288723042735 0.000342914575822 -0.0161880524548 -0.442144609568 -0.12054770537 0.0880007128685 -0.188223714481 0.0819401915293 0.137650408361 0.0986154951449 0.280657484046 0.116076815107 -0.0213223410381 -0.0296553257023 0.034433156981 0.196568837363 -0.107658831183 -0.11797523334 -0.126166972183 0.175318950548 -0.0148727345813 -0.148951125688 -0.175754969327 -0.257897363516 0.182479272944 0.463108565165 -0.115794132255 0.119362947865 -0.0133437092936 -0.0274083416299 0.249839081976 0.0363875884433 0.0342919386554 -0.0903986113369 -0.0119872909288 -0.119685482287
grass -0.095809443041 -0.217684322436 0.0409452318904 -0.159872746816 0.113701871547 -0.357208546421 -0.212694735578 -0.258322720332 -0.0352174490271 -0.0424009745911 -0.132373998643 0.271192261654 -0.117509321484 -0.200785138471 0.4097657641 -0.0890000819492 -0.189809492208 -0.144293230757 -0.00211897525199 -0.0325053458567 -0.254956597139 -0.367321677754 0.00585031055606 0.111659359862 0.00657124355122 0.10156895982 -0.0263935031231 0.0210207599555 0.0103088367018 -0.0331095868476 0.0115089530685 -0.134311870066 0.244953707367 0.251185894706 0.332161522115 -0.074871497659 -0.190678524653 -0.000940811231156 -0.0191918977293 0.392980729103 -0.0266590478155 -0.0448098524523 -0.302575370233 0.216297709311 0.180201589745 -0.340419570877 0.251922526743 0.0155360786044 -0.242700702181 0.298402052507
rope -0.0347703831049 -0.286720965598 -0.0288350301714 -0.0107718009397 0.017678324422 -0.174105366208 -0.0275866497129 -0.214393561135 -0.159563928717 0.00205172608917 -0.124447801885 0.250363463586 -0.0968106320309 -0.125649924837 0.294106899374 -0.169168628413 -0.131080974358 -0.0120247796387 0.0808720997937 -0.302786882961 0.0569607368459 -0.0877923533186 0.331656256501 -0.0516929086084 0.217689087928 0.16685401278 -0.102490479888 -0.0266503920578 0.135127660627 0.0488223144091 -0.0426686015979 -0.114131033326 -0.311128309298 0.100416368954 0.16789372043 0.0165564761706 -0.103852689887 -0.165698722441 -0.130351415557 0.264503203865 0.190826564622 -0.117472056161 0.0966733895261 0.0139865307024 -0.0154454485042 -0.228555534423 -0.114862995571 0.175006708887 -0.0543262767982 -0.124327958552
